digraph Tree {
node [shape=box] ;
0 [label="X[2] <= 133.5\ngini = 0.496\nsamples = 246265\nvalue = [8449, 147228, 233721]"] ;
1 [label="X[3] <= 34.5\ngini = 0.497\nsamples = 6993\nvalue = [85, 6248, 4637]"] ;
0 -> 1 [labeldistance=2.5, labelangle=45, headlabel="True"] ;
2 [label="X[4] <= 19.5\ngini = 0.503\nsamples = 4344\nvalue = [58, 3714, 3030]"] ;
1 -> 2 ;
3 [label="X[5] <= 0.5\ngini = 0.501\nsamples = 3732\nvalue = [52, 3268, 2525]"] ;
2 -> 3 ;
4 [label="gini = 0.477\nsamples = 527\nvalue = [13, 519, 290]"] ;
3 -> 4 ;
5 [label="gini = 0.502\nsamples = 3205\nvalue = [39, 2749, 2235]"] ;
3 -> 5 ;
6 [label="X[5] <= 2.5\ngini = 0.504\nsamples = 612\nvalue = [6, 446, 505]"] ;
2 -> 6 ;
7 [label="gini = 0.496\nsamples = 277\nvalue = [4, 183, 253]"] ;
6 -> 7 ;
8 [label="gini = 0.504\nsamples = 335\nvalue = [2, 263, 252]"] ;
6 -> 8 ;
9 [label="X[6] <= 1.5\ngini = 0.482\nsamples = 2649\nvalue = [27, 2534, 1607]"] ;
1 -> 9 ;
10 [label="X[2] <= 117.5\ngini = 0.497\nsamples = 103\nvalue = [0, 70, 82]"] ;
9 -> 10 ;
11 [label="gini = 0.452\nsamples = 40\nvalue = [0, 19, 36]"] ;
10 -> 11 ;
12 [label="gini = 0.499\nsamples = 63\nvalue = [0, 51, 46]"] ;
10 -> 12 ;
13 [label="X[2] <= 117.5\ngini = 0.479\nsamples = 2546\nvalue = [27, 2464, 1525]"] ;
9 -> 13 ;
14 [label="gini = 0.499\nsamples = 891\nvalue = [1, 722, 646]"] ;
13 -> 14 ;
15 [label="gini = 0.457\nsamples = 1655\nvalue = [26, 1742, 879]"] ;
13 -> 15 ;
16 [label="X[2] <= 1631.5\ngini = 0.494\nsamples = 239272\nvalue = [8364, 140980, 229084]"] ;
0 -> 16 [labeldistance=2.5, labelangle=-45, headlabel="False"] ;
17 [label="X[4] <= 9.5\ngini = 0.486\nsamples = 165417\nvalue = [6495, 91424, 163767]"] ;
16 -> 17 ;
18 [label="X[1] <= 102.5\ngini = 0.511\nsamples = 45395\nvalue = [1952, 28701, 41153]"] ;
17 -> 18 ;
19 [label="gini = 0.492\nsamples = 29243\nvalue = [1413, 16199, 28788]"] ;
18 -> 19 ;
20 [label="gini = 0.521\nsamples = 16152\nvalue = [539, 12502, 12365]"] ;
18 -> 20 ;
21 [label="X[2] <= 1472.5\ngini = 0.473\nsamples = 120022\nvalue = [4543, 62723, 122614]"] ;
17 -> 21 ;
22 [label="gini = 0.479\nsamples = 108842\nvalue = [4218, 58199, 109744]"] ;
21 -> 22 ;
23 [label="gini = 0.407\nsamples = 11180\nvalue = [325, 4524, 12870]"] ;
21 -> 23 ;
24 [label="X[3] <= 29.5\ngini = 0.507\nsamples = 73855\nvalue = [1869, 49556, 65317]"] ;
16 -> 24 ;
25 [label="X[0] <= 3943.5\ngini = 0.493\nsamples = 33087\nvalue = [869, 20212, 31440]"] ;
24 -> 25 ;
26 [label="gini = 0.512\nsamples = 2185\nvalue = [44, 1747, 1721]"] ;
25 -> 26 ;
27 [label="gini = 0.49\nsamples = 30902\nvalue = [825, 18465, 29719]"] ;
25 -> 27 ;
28 [label="X[3] <= 44.5\ngini = 0.513\nsamples = 40768\nvalue = [1000, 29344, 33877]"] ;
24 -> 28 ;
29 [label="gini = 0.514\nsamples = 29250\nvalue = [712, 21878, 23504]"] ;
28 -> 29 ;
30 [label="gini = 0.503\nsamples = 11518\nvalue = [288, 7466, 10373]"] ;
28 -> 30 ;
}