digraph Tree {
node [shape=box] ;
0 [label="X[2] <= 1631.5\ngini = 0.496\nsamples = 246247\nvalue = [8479, 146461, 234458]"] ;
1 [label="X[4] <= 9.5\ngini = 0.488\nsamples = 172451\nvalue = [6632, 96865, 169315]"] ;
0 -> 1 [labeldistance=2.5, labelangle=45, headlabel="True"] ;
2 [label="X[0] <= 45640.5\ngini = 0.511\nsamples = 46984\nvalue = [1998, 29724, 42505]"] ;
1 -> 2 ;
3 [label="X[1] <= 102.5\ngini = 0.512\nsamples = 45896\nvalue = [1936, 29212, 41350]"] ;
2 -> 3 ;
4 [label="gini = 0.495\nsamples = 29681\nvalue = [1397, 16629, 28818]"] ;
3 -> 4 ;
5 [label="gini = 0.52\nsamples = 16215\nvalue = [539, 12583, 12532]"] ;
3 -> 5 ;
6 [label="X[7] <= 6.5\ngini = 0.465\nsamples = 1088\nvalue = [62, 512, 1155]"] ;
2 -> 6 ;
7 [label="gini = 0.431\nsamples = 544\nvalue = [37, 212, 616]"] ;
6 -> 7 ;
8 [label="gini = 0.489\nsamples = 544\nvalue = [25, 300, 539]"] ;
6 -> 8 ;
9 [label="X[2] <= 133.5\ngini = 0.477\nsamples = 125467\nvalue = [4634, 67141, 126810]"] ;
1 -> 9 ;
10 [label="X[4] <= 19.5\ngini = 0.496\nsamples = 5355\nvalue = [48, 4776, 3586]"] ;
9 -> 10 ;
11 [label="gini = 0.489\nsamples = 4477\nvalue = [42, 4147, 2858]"] ;
10 -> 11 ;
12 [label="gini = 0.502\nsamples = 878\nvalue = [6, 629, 728]"] ;
10 -> 12 ;
13 [label="X[3] <= 0.5\ngini = 0.472\nsamples = 120112\nvalue = [4586, 62365, 123224]"] ;
9 -> 13 ;
14 [label="gini = 0.455\nsamples = 33343\nvalue = [1216, 16185, 35527]"] ;
13 -> 14 ;
15 [label="gini = 0.478\nsamples = 86769\nvalue = [3370, 46180, 87697]"] ;
13 -> 15 ;
16 [label="X[1] <= 27.5\ngini = 0.507\nsamples = 73796\nvalue = [1847, 49596, 65143]"] ;
0 -> 16 [labeldistance=2.5, labelangle=-45, headlabel="False"] ;
17 [label="X[1] <= 18.5\ngini = 0.452\nsamples = 11027\nvalue = [382, 5242, 11700]"] ;
16 -> 17 ;
18 [label="X[2] <= 1972.0\ngini = 0.486\nsamples = 8682\nvalue = [310, 4833, 8505]"] ;
17 -> 18 ;
19 [label="gini = 0.501\nsamples = 3440\nvalue = [100, 2174, 3173]"] ;
18 -> 19 ;
20 [label="gini = 0.472\nsamples = 5242\nvalue = [210, 2659, 5332]"] ;
18 -> 20 ;
21 [label="X[0] <= 19867.5\ngini = 0.232\nsamples = 2345\nvalue = [72, 409, 3195]"] ;
17 -> 21 ;
22 [label="gini = 0.218\nsamples = 2239\nvalue = [67, 360, 3073]"] ;
21 -> 22 ;
23 [label="gini = 0.441\nsamples = 106\nvalue = [5, 49, 122]"] ;
21 -> 23 ;
24 [label="X[1] <= 62.5\ngini = 0.51\nsamples = 62769\nvalue = [1465, 44354, 53443]"] ;
16 -> 24 ;
25 [label="X[7] <= 8.5\ngini = 0.479\nsamples = 6907\nvalue = [63, 6643, 4143]"] ;
24 -> 25 ;
26 [label="gini = 0.485\nsamples = 4706\nvalue = [37, 4432, 2957]"] ;
25 -> 26 ;
27 [label="gini = 0.463\nsamples = 2201\nvalue = [26, 2211, 1186]"] ;
25 -> 27 ;
28 [label="X[2] <= 1933.5\ngini = 0.507\nsamples = 55862\nvalue = [1402, 37711, 49300]"] ;
24 -> 28 ;
29 [label="gini = 0.511\nsamples = 20048\nvalue = [342, 15479, 15841]"] ;
28 -> 29 ;
30 [label="gini = 0.499\nsamples = 35814\nvalue = [1060, 22232, 33459]"] ;
28 -> 30 ;
}